<?xml version="1.0" encoding="UTF-8"?>
<BIF VERSION="0.3"  xmlns="http://www.cs.ubc.ca/labs/lci/fopi/ve/XMLBIFv0_3"
	xmlns:xsi="http://www.w3.org/2001/XMLSchema-instance"
	xsi:schemaLocation="http://www.cs.ubc.ca/labs/lci/fopi/ve/XMLBIFv0_3 http://www.cs.ubc.ca/labs/lci/fopi/ve/XMLBIFv0_3/XMLBIFv0_3.xsd">
<NETWORK>
<NAME>Fire Alarm Belief Network</NAME>
<PROPERTY>detailed = This example models the problem of whether a fire alarm went off because of tampering or a fire. This is Figure 6.1 of Poole and Mackworth, Artificial Intelligence: foundations of computational agents. Copyright Poole and Mackworth, 2010, and used in Examples 6.10, 6.12, 6.13, 6.15, 6.20, 6.21, 6.23, 6.24, 6.26, and 6.27. This may be used under a Creative Commons Attribution-Noncommercial-Share Alike 2.5 Canada License http://creativecommons.org/licenses/by-nc-sa/2.5/ca/</PROPERTY>
<PROPERTY>short = Fire Alarm Belief Network Example of Poole and Mackworth, Artificial Intelligence.</PROPERTY>

<VARIABLE TYPE="nature">
	<NAME>tampering</NAME>
	<OUTCOME>T</OUTCOME>
	<OUTCOME>F</OUTCOME>
	<PROPERTY>position = (7090.3740234375, 5044.08203125)</PROPERTY>
</VARIABLE>

<VARIABLE TYPE="nature">
	<NAME>fire</NAME>
	<OUTCOME>T</OUTCOME>
	<OUTCOME>F</OUTCOME>
	<PROPERTY>position = (7317.658203125, 5040.70849609375)</PROPERTY>
</VARIABLE>

<VARIABLE TYPE="nature">
	<NAME>alarm</NAME>
	<OUTCOME>T</OUTCOME>
	<OUTCOME>F</OUTCOME>
	<PROPERTY>position = (7198.125, 5187.18017578125)</PROPERTY>
</VARIABLE>

<VARIABLE TYPE="nature">
	<NAME>smoke</NAME>
	<OUTCOME>T</OUTCOME>
	<OUTCOME>F</OUTCOME>
	<PROPERTY>position = (7413.6259765625, 5180.4453125)</PROPERTY>
</VARIABLE>

<VARIABLE TYPE="nature">
	<NAME>leaving</NAME>
	<OUTCOME>T</OUTCOME>
	<OUTCOME>F</OUTCOME>
	<PROPERTY>position = (7199.81103515625, 5330.2890625)</PROPERTY>
</VARIABLE>

<VARIABLE TYPE="nature">
	<NAME>report</NAME>
	<OUTCOME>T</OUTCOME>
	<OUTCOME>F</OUTCOME>
	<PROPERTY>position = (7201.498046875, 5463.29150390625)</PROPERTY>
</VARIABLE>

<VARIABLE TYPE="nature">
	<NAME>Cal Mom</NAME>
	<OUTCOME>T</OUTCOME>
	<OUTCOME>F</OUTCOME>
	<PROPERTY>position = (7082.0, 5249.0)</PROPERTY>
</VARIABLE>

<DEFINITION>
	<FOR>tampering</FOR>
	<TABLE>0.02 0.98</TABLE>
</DEFINITION>

<DEFINITION>
	<FOR>fire</FOR>
	<TABLE>0.01 0.99</TABLE>
</DEFINITION>

<DEFINITION>
	<FOR>alarm</FOR>
	<GIVEN>tampering</GIVEN>
	<GIVEN>fire</GIVEN>
	<TABLE>0.5 0.5 0.85 0.15 0.99 0.01 0.0 1.0</TABLE>
</DEFINITION>

<DEFINITION>
	<FOR>smoke</FOR>
	<GIVEN>fire</GIVEN>
	<TABLE>0.9 0.1 0.01 0.99</TABLE>
</DEFINITION>

<DEFINITION>
	<FOR>leaving</FOR>
	<GIVEN>alarm</GIVEN>
	<TABLE>0.88 0.12 0.0 1.0</TABLE>
</DEFINITION>

<DEFINITION>
	<FOR>report</FOR>
	<GIVEN>leaving</GIVEN>
	<TABLE>0.75 0.25 0.01 0.99</TABLE>
</DEFINITION>

<DEFINITION>
	<FOR>Cal Mom</FOR>
	<GIVEN>alarm</GIVEN>
	<TABLE>0.2 0.8 0.1 0.9</TABLE>
</DEFINITION>
</NETWORK>
</BIF>
